<?xml version="1.0"?>
<opencv_storage>
<!-- Created using Computer Vision System Toolbox(tm) for MATLAB(R) -->
<!-- Version 9.4.0.813654 (R2018a) -->
<!-- Compatible with OpenCV 3.1 -->
<cascade>
  <stageType>BOOST</stageType>
  <featureType>HOG</featureType>
  <height>37</height>
  <width>32</width>
  <stageParams>
    <boostType>GAB</boostType>
    <minHitRate>9.9500000476837158e-01</minHitRate>
    <maxFalseAlarm>1.0000000474974513e-03</maxFalseAlarm>
    <weightTrimRate>9.4999999999999996e-01</weightTrimRate>
    <maxDepth>1</maxDepth>
    <maxWeakCount>100</maxWeakCount></stageParams>
  <featureParams>
    <maxCatCount>0</maxCatCount>
    <featSize>36</featSize></featureParams>
  <stageNum>5</stageNum>
  <stages>
    <!-- stage 0 -->
    <_>
      <maxWeakCount>5</maxWeakCount>
      <stageThreshold>4.3884107470512390e-01</stageThreshold>
      <weakClassifiers>
        <_>
          <internalNodes>
            0 -1 2 6.2666884623467922e-03</internalNodes>
          <leafValues>
            8.8732391595840454e-01 -9.7058820724487305e-01</leafValues></_>
        <_>
          <internalNodes>
            0 -1 20 8.3399452269077301e-03</internalNodes>
          <leafValues>
            7.4778264760971069e-01 -9.7094231843948364e-01</leafValues></_>
        <_>
          <internalNodes>
            0 -1 39 1.0804581455886364e-02</internalNodes>
          <leafValues>
            8.2533651590347290e-01 -8.9686000347137451e-01</leafValues></_>
        <_>
          <internalNodes>
            0 -1 24 9.3463361263275146e-03</internalNodes>
          <leafValues>
            6.9680005311965942e-01 -9.7507405281066895e-01</leafValues></_>
        <_>
          <internalNodes>
            0 -1 22 4.8988237977027893e-02</internalNodes>
          <leafValues>
            -8.4494704008102417e-01 8.6170661449432373e-01</leafValues></_></weakClassifiers></_>
    <!-- stage 1 -->
    <_>
      <maxWeakCount>7</maxWeakCount>
      <stageThreshold>1.5355500578880310e-01</stageThreshold>
      <weakClassifiers>
        <_>
          <internalNodes>
            0 -1 12 9.2528447508811951e-02</internalNodes>
          <leafValues>
            -8.3892619609832764e-01 9.6551722288131714e-01</leafValues></_>
        <_>
          <internalNodes>
            0 -1 25 1.1570116505026817e-02</internalNodes>
          <leafValues>
            6.6491395235061646e-01 -9.5656073093414307e-01</leafValues></_>
        <_>
          <internalNodes>
            0 -1 45 2.9611192643642426e-02</internalNodes>
          <leafValues>
            -8.2823288440704346e-01 7.7582472562789917e-01</leafValues></_>
        <_>
          <internalNodes>
            0 -1 32 6.7740054801106453e-03</internalNodes>
          <leafValues>
            7.3092299699783325e-01 -7.4162465333938599e-01</leafValues></_>
        <_>
          <internalNodes>
            0 -1 30 3.4957551397383213e-03</internalNodes>
          <leafValues>
            5.7973301410675049e-01 -8.9225441217422485e-01</leafValues></_>
        <_>
          <internalNodes>
            0 -1 7 3.5579111427068710e-02</internalNodes>
          <leafValues>
            -6.1525237560272217e-01 7.5648385286331177e-01</leafValues></_>
        <_>
          <internalNodes>
            0 -1 3 2.0027033984661102e-02</internalNodes>
          <leafValues>
            5.6120789051055908e-01 -8.5735118389129639e-01</leafValues></_></weakClassifiers></_>
    <!-- stage 2 -->
    <_>
      <maxWeakCount>10</maxWeakCount>
      <stageThreshold>2.8550374507904053e-01</stageThreshold>
      <weakClassifiers>
        <_>
          <internalNodes>
            0 -1 14 5.8957889676094055e-02</internalNodes>
          <leafValues>
            -8.9285713434219360e-01 8.3582091331481934e-01</leafValues></_>
        <_>
          <internalNodes>
            0 -1 11 1.1634804308414459e-02</internalNodes>
          <leafValues>
            -8.9573729038238525e-01 5.2158296108245850e-01</leafValues></_>
        <_>
          <internalNodes>
            0 -1 43 2.8934638947248459e-02</internalNodes>
          <leafValues>
            -7.5783431529998779e-01 6.4756268262863159e-01</leafValues></_>
        <_>
          <internalNodes>
            0 -1 34 3.7609696388244629e-02</internalNodes>
          <leafValues>
            -5.8567845821380615e-01 7.7040672302246094e-01</leafValues></_>
        <_>
          <internalNodes>
            0 -1 33 8.3633549511432648e-03</internalNodes>
          <leafValues>
            -9.2103534936904907e-01 4.1408738493919373e-01</leafValues></_>
        <_>
          <internalNodes>
            0 -1 8 1.0093667544424534e-02</internalNodes>
          <leafValues>
            4.7077551484107971e-01 -8.2892882823944092e-01</leafValues></_>
        <_>
          <internalNodes>
            0 -1 28 5.4746288806200027e-03</internalNodes>
          <leafValues>
            -9.6137911081314087e-01 3.0055877566337585e-01</leafValues></_>
        <_>
          <internalNodes>
            0 -1 10 1.4164253138005733e-02</internalNodes>
          <leafValues>
            5.2053481340408325e-01 -8.3733862638473511e-01</leafValues></_>
        <_>
          <internalNodes>
            0 -1 16 4.7174885869026184e-02</internalNodes>
          <leafValues>
            -6.4951574802398682e-01 6.8215465545654297e-01</leafValues></_>
        <_>
          <internalNodes>
            0 -1 44 4.3525442481040955e-02</internalNodes>
          <leafValues>
            -3.8782048225402832e-01 9.5908021926879883e-01</leafValues></_></weakClassifiers></_>
    <!-- stage 3 -->
    <_>
      <maxWeakCount>9</maxWeakCount>
      <stageThreshold>8.6389529705047607e-01</stageThreshold>
      <weakClassifiers>
        <_>
          <internalNodes>
            0 -1 26 7.7189588919281960e-03</internalNodes>
          <leafValues>
            7.3856210708618164e-01 -9.6168583631515503e-01</leafValues></_>
        <_>
          <internalNodes>
            0 -1 16 1.0066597908735275e-01</internalNodes>
          <leafValues>
            -7.6803058385848999e-01 8.9543038606643677e-01</leafValues></_>
        <_>
          <internalNodes>
            0 -1 37 1.4292662963271141e-02</internalNodes>
          <leafValues>
            5.4857790470123291e-01 -8.5921806097030640e-01</leafValues></_>
        <_>
          <internalNodes>
            0 -1 35 2.4249022826552391e-02</internalNodes>
          <leafValues>
            4.4241070747375488e-01 -8.1444531679153442e-01</leafValues></_>
        <_>
          <internalNodes>
            0 -1 0 2.8017183765769005e-02</internalNodes>
          <leafValues>
            -4.8863440752029419e-01 8.3491790294647217e-01</leafValues></_>
        <_>
          <internalNodes>
            0 -1 6 4.7281375154852867e-03</internalNodes>
          <leafValues>
            -7.3195141553878784e-01 4.9774116277694702e-01</leafValues></_>
        <_>
          <internalNodes>
            0 -1 4 6.1465422622859478e-03</internalNodes>
          <leafValues>
            -9.3123829364776611e-01 4.0614968538284302e-01</leafValues></_>
        <_>
          <internalNodes>
            0 -1 27 7.3557780124247074e-03</internalNodes>
          <leafValues>
            5.1587855815887451e-01 -6.6288572549819946e-01</leafValues></_>
        <_>
          <internalNodes>
            0 -1 23 2.0749524235725403e-02</internalNodes>
          <leafValues>
            4.1582307219505310e-01 -8.9921402931213379e-01</leafValues></_></weakClassifiers></_>
    <!-- stage 4 -->
    <_>
      <maxWeakCount>17</maxWeakCount>
      <stageThreshold>-1.7872750759124756e-02</stageThreshold>
      <weakClassifiers>
        <_>
          <internalNodes>
            0 -1 1 2.1516896784305573e-02</internalNodes>
          <leafValues>
            -7.0854270458221436e-01 6.0294115543365479e-01</leafValues></_>
        <_>
          <internalNodes>
            0 -1 12 1.7694726586341858e-01</internalNodes>
          <leafValues>
            -4.1083252429962158e-01 7.8752595186233521e-01</leafValues></_>
        <_>
          <internalNodes>
            0 -1 15 2.7912303339689970e-03</internalNodes>
          <leafValues>
            -8.8095289468765259e-01 3.9773085713386536e-01</leafValues></_>
        <_>
          <internalNodes>
            0 -1 17 1.0661115869879723e-02</internalNodes>
          <leafValues>
            -8.4726428985595703e-01 2.5093311071395874e-01</leafValues></_>
        <_>
          <internalNodes>
            0 -1 36 3.9637356996536255e-02</internalNodes>
          <leafValues>
            -3.6476472020149231e-01 7.9255288839340210e-01</leafValues></_>
        <_>
          <internalNodes>
            0 -1 42 1.2815354391932487e-02</internalNodes>
          <leafValues>
            -7.8969854116439819e-01 3.0528065562248230e-01</leafValues></_>
        <_>
          <internalNodes>
            0 -1 21 4.6291290782392025e-03</internalNodes>
          <leafValues>
            -9.6109127998352051e-01 2.1052812039852142e-01</leafValues></_>
        <_>
          <internalNodes>
            0 -1 9 1.8257836345583200e-03</internalNodes>
          <leafValues>
            -7.7465373277664185e-01 2.5641599297523499e-01</leafValues></_>
        <_>
          <internalNodes>
            0 -1 41 1.2860858812928200e-02</internalNodes>
          <leafValues>
            1.8002602458000183e-01 -7.8193622827529907e-01</leafValues></_>
        <_>
          <internalNodes>
            0 -1 13 1.6211364418268204e-02</internalNodes>
          <leafValues>
            -6.1832678318023682e-01 2.9547235369682312e-01</leafValues></_>
        <_>
          <internalNodes>
            0 -1 5 1.0967262089252472e-02</internalNodes>
          <leafValues>
            -6.1686998605728149e-01 3.2847031950950623e-01</leafValues></_>
        <_>
          <internalNodes>
            0 -1 38 1.2399689294397831e-02</internalNodes>
          <leafValues>
            -5.7649654150009155e-01 3.6096942424774170e-01</leafValues></_>
        <_>
          <internalNodes>
            0 -1 19 7.7395411208271980e-03</internalNodes>
          <leafValues>
            -4.1655933856964111e-01 5.0605326890945435e-01</leafValues></_>
        <_>
          <internalNodes>
            0 -1 31 7.2357386350631714e-02</internalNodes>
          <leafValues>
            -3.2510975003242493e-01 7.4737048149108887e-01</leafValues></_>
        <_>
          <internalNodes>
            0 -1 40 1.2166597880423069e-02</internalNodes>
          <leafValues>
            3.1926491856575012e-01 -6.9515478610992432e-01</leafValues></_>
        <_>
          <internalNodes>
            0 -1 18 6.3525545410811901e-03</internalNodes>
          <leafValues>
            -6.5661758184432983e-01 3.1118419766426086e-01</leafValues></_>
        <_>
          <internalNodes>
            0 -1 29 1.5803830698132515e-02</internalNodes>
          <leafValues>
            -4.9213549494743347e-01 4.2822784185409546e-01</leafValues></_></weakClassifiers></_></stages>
  <features>
    <_>
      <rect>
        0 4 8 8 3</rect></_>
    <_>
      <rect>
        0 4 8 8 28</rect></_>
    <_>
      <rect>
        0 16 8 8 12</rect></_>
    <_>
      <rect>
        0 16 8 8 35</rect></_>
    <_>
      <rect>
        0 20 8 8 15</rect></_>
    <_>
      <rect>
        0 20 8 8 30</rect></_>
    <_>
      <rect>
        4 0 8 8 12</rect></_>
    <_>
      <rect>
        4 4 8 8 1</rect></_>
    <_>
      <rect>
        4 4 8 8 22</rect></_>
    <_>
      <rect>
        4 4 8 8 28</rect></_>
    <_>
      <rect>
        4 8 8 8 34</rect></_>
    <_>
      <rect>
        4 12 8 8 0</rect></_>
    <_>
      <rect>
        4 12 8 8 24</rect></_>
    <_>
      <rect>
        8 0 8 8 1</rect></_>
    <_>
      <rect>
        8 4 8 8 15</rect></_>
    <_>
      <rect>
        8 16 8 8 9</rect></_>
    <_>
      <rect>
        8 16 8 8 24</rect></_>
    <_>
      <rect>
        8 20 8 8 23</rect></_>
    <_>
      <rect>
        12 0 8 8 23</rect></_>
    <_>
      <rect>
        12 4 8 8 28</rect></_>
    <_>
      <rect>
        12 4 8 8 30</rect></_>
    <_>
      <rect>
        12 8 8 8 14</rect></_>
    <_>
      <rect>
        12 8 8 8 15</rect></_>
    <_>
      <rect>
        12 12 8 8 4</rect></_>
    <_>
      <rect>
        12 16 8 8 12</rect></_>
    <_>
      <rect>
        12 20 8 8 8</rect></_>
    <_>
      <rect>
        16 0 8 8 19</rect></_>
    <_>
      <rect>
        16 4 8 8 19</rect></_>
    <_>
      <rect>
        16 8 8 8 7</rect></_>
    <_>
      <rect>
        16 8 8 8 9</rect></_>
    <_>
      <rect>
        16 12 8 8 3</rect></_>
    <_>
      <rect>
        16 12 8 8 15</rect></_>
    <_>
      <rect>
        16 12 8 8 25</rect></_>
    <_>
      <rect>
        16 16 8 8 9</rect></_>
    <_>
      <rect>
        16 20 8 8 10</rect></_>
    <_>
      <rect>
        0 4 8 16 17</rect></_>
    <_>
      <rect>
        0 4 8 16 21</rect></_>
    <_>
      <rect>
        8 4 8 16 10</rect></_>
    <_>
      <rect>
        8 4 8 16 25</rect></_>
    <_>
      <rect>
        12 4 8 16 8</rect></_>
    <_>
      <rect>
        0 0 16 8 24</rect></_>
    <_>
      <rect>
        0 16 16 8 13</rect></_>
    <_>
      <rect>
        0 20 16 8 28</rect></_>
    <_>
      <rect>
        0 0 16 16 1</rect></_>
    <_>
      <rect>
        0 4 16 16 8</rect></_>
    <_>
      <rect>
        0 4 16 16 28</rect></_></features></cascade>
</opencv_storage>
